<?xml version="1.0"?>
<opencv_storage>
<cascade>
  <stageType>BOOST</stageType>
  <featureType>HAAR</featureType>
  <height>20</height>
  <width>20</width>
  <stageParams>
    <boostType>GAB</boostType>
    <minHitRate>9.9500000476837158e-01</minHitRate>
    <maxFalseAlarm>5.0000000000000000e-01</maxFalseAlarm>
    <weightTrimRate>9.4999999999999996e-01</weightTrimRate>
    <maxDepth>1</maxDepth>
    <maxWeakCount>100</maxWeakCount></stageParams>
  <featureParams>
    <maxCatCount>0</maxCatCount>
    <featSize>1</featSize>
    <mode>BASIC</mode></featureParams>
  <stageNum>10</stageNum>
  <stages>
    <!-- stage 0 -->
    <_>
      <maxWeakCount>5</maxWeakCount>
      <stageThreshold>-1.5118294954299927e+00</stageThreshold>
      <weakClassifiers>
        <_>
          <internalNodes>
            0 -1 72 9.4306515529751778e-03</internalNodes>
          <leafValues>
            -6.1809045076370239e-01 7.0285713672637939e-01</leafValues></_>
        <_>
          <internalNodes>
            0 -1 22 -1.4978477265685797e-03</internalNodes>
          <leafValues>
            6.0405856370925903e-01 -4.9801522493362427e-01</leafValues></_>
        <_>
          <internalNodes>
            0 -1 87 -1.8090194789692760e-03</internalNodes>
          <leafValues>
            4.9123585224151611e-01 -6.8625676631927490e-01</leafValues></_>
        <_>
          <internalNodes>
            0 -1 78 3.7896586582064629e-03</internalNodes>
          <leafValues>
            -5.5406999588012695e-01 4.9928826093673706e-01</leafValues></_>
        <_>
          <internalNodes>
            0 -1 67 2.2019327152520418e-03</internalNodes>
          <leafValues>
            -3.3288961648941040e-01 7.1320211887359619e-01</leafValues></_></weakClassifiers></_>
    <!-- stage 1 -->
    <_>
      <maxWeakCount>8</maxWeakCount>
      <stageThreshold>-1.0695859193801880e+00</stageThreshold>
      <weakClassifiers>
        <_>
          <internalNodes>
            0 -1 79 5.1383774727582932e-02</internalNodes>
          <leafValues>
            -4.1441440582275391e-01 6.0526317358016968e-01</leafValues></_>
        <_>
          <internalNodes>
            0 -1 21 -4.9793212674558163e-03</internalNodes>
          <leafValues>
            7.1104425191879272e-01 -3.6572992801666260e-01</leafValues></_>
        <_>
          <internalNodes>
            0 -1 68 4.4475165195763111e-03</internalNodes>
          <leafValues>
            -3.4365004301071167e-01 5.3595232963562012e-01</leafValues></_>
        <_>
          <internalNodes>
            0 -1 11 -3.9753350429236889e-03</internalNodes>
          <leafValues>
            7.1974313259124756e-01 -3.0544722080230713e-01</leafValues></_>
        <_>
          <internalNodes>
            0 -1 60 4.3998714536428452e-03</internalNodes>
          <leafValues>
            -3.4295311570167542e-01 5.0147074460983276e-01</leafValues></_>
        <_>
          <internalNodes>
            0 -1 17 1.0939503461122513e-01</internalNodes>
          <leafValues>
            -4.0915229916572571e-01 4.4848001003265381e-01</leafValues></_>
        <_>
          <internalNodes>
            0 -1 90 3.2271869713440537e-04</internalNodes>
          <leafValues>
            -3.0735749006271362e-01 4.6084964275360107e-01</leafValues></_>
        <_>
          <internalNodes>
            0 -1 20 -4.0267538279294968e-03</internalNodes>
          <leafValues>
            5.6148630380630493e-01 -3.2636705040931702e-01</leafValues></_></weakClassifiers></_>
    <!-- stage 2 -->
    <_>
      <maxWeakCount>10</maxWeakCount>
      <stageThreshold>-1.1729309558868408e+00</stageThreshold>
      <weakClassifiers>
        <_>
          <internalNodes>
            0 -1 93 -7.9090642975643277e-04</internalNodes>
          <leafValues>
            4.5365855097770691e-01 -5.5029582977294922e-01</leafValues></_>
        <_>
          <internalNodes>
            0 -1 76 1.0901495115831494e-03</internalNodes>
          <leafValues>
            -3.7681838870048523e-01 3.8946038484573364e-01</leafValues></_>
        <_>
          <internalNodes>
            0 -1 3 7.8203827142715454e-03</internalNodes>
          <leafValues>
            -2.0627763867378235e-01 6.2168127298355103e-01</leafValues></_>
        <_>
          <internalNodes>
            0 -1 33 3.8660166319459677e-03</internalNodes>
          <leafValues>
            -2.4472069740295410e-01 6.3616812229156494e-01</leafValues></_>
        <_>
          <internalNodes>
            0 -1 50 -7.7237159013748169e-02</internalNodes>
          <leafValues>
            4.4808134436607361e-01 -3.0403086543083191e-01</leafValues></_>
        <_>
          <internalNodes>
            0 -1 30 -4.5763945672661066e-04</internalNodes>
          <leafValues>
            3.8539105653762817e-01 -3.7040156126022339e-01</leafValues></_>
        <_>
          <internalNodes>
            0 -1 34 2.5339277461171150e-02</internalNodes>
          <leafValues>
            1.5309476852416992e-01 -8.2294958829879761e-01</leafValues></_>
        <_>
          <internalNodes>
            0 -1 16 -1.1939690739382058e-04</internalNodes>
          <leafValues>
            3.2187059521675110e-01 -4.2497259378433228e-01</leafValues></_>
        <_>
          <internalNodes>
            0 -1 57 -6.7290308652445674e-04</internalNodes>
          <leafValues>
            5.6406515836715698e-01 -2.8030130267143250e-01</leafValues></_>
        <_>
          <internalNodes>
            0 -1 28 -3.5623606294393539e-02</internalNodes>
          <leafValues>
            7.0213770866394043e-01 -1.7091900110244751e-01</leafValues></_></weakClassifiers></_>
    <!-- stage 3 -->
    <_>
      <maxWeakCount>8</maxWeakCount>
      <stageThreshold>-7.6277649402618408e-01</stageThreshold>
      <weakClassifiers>
        <_>
          <internalNodes>
            0 -1 85 -3.3161928877234459e-04</internalNodes>
          <leafValues>
            3.3953487873077393e-01 -4.5911949872970581e-01</leafValues></_>
        <_>
          <internalNodes>
            0 -1 53 -2.2658796515315771e-03</internalNodes>
          <leafValues>
            6.0100418329238892e-01 -2.5392103195190430e-01</leafValues></_>
        <_>
          <internalNodes>
            0 -1 48 1.2215347029268742e-02</internalNodes>
          <leafValues>
            -4.5154163241386414e-01 3.4483739733695984e-01</leafValues></_>
        <_>
          <internalNodes>
            0 -1 75 2.2965648677200079e-03</internalNodes>
          <leafValues>
            -3.9003521203994751e-01 4.5806592702865601e-01</leafValues></_>
        <_>
          <internalNodes>
            0 -1 4 4.5978524722158909e-03</internalNodes>
          <leafValues>
            -2.3842576146125793e-01 5.6589746475219727e-01</leafValues></_>
        <_>
          <internalNodes>
            0 -1 43 -2.9054596088826656e-03</internalNodes>
          <leafValues>
            3.9794301986694336e-01 -3.4545093774795532e-01</leafValues></_>
        <_>
          <internalNodes>
            0 -1 26 -4.0781251154839993e-03</internalNodes>
          <leafValues>
            4.8187482357025146e-01 -3.0766952037811279e-01</leafValues></_>
        <_>
          <internalNodes>
            0 -1 56 3.5195820964872837e-03</internalNodes>
          <leafValues>
            1.9013258814811707e-01 -7.6657152175903320e-01</leafValues></_></weakClassifiers></_>
    <!-- stage 4 -->
    <_>
      <maxWeakCount>13</maxWeakCount>
      <stageThreshold>-7.0095747709274292e-01</stageThreshold>
      <weakClassifiers>
        <_>
          <internalNodes>
            0 -1 80 4.3423093855381012e-02</internalNodes>
          <leafValues>
            -3.9215686917304993e-01 4.7058823704719543e-01</leafValues></_>
        <_>
          <internalNodes>
            0 -1 81 4.4542434625327587e-03</internalNodes>
          <leafValues>
            -2.9069581627845764e-01 3.6651059985160828e-01</leafValues></_>
        <_>
          <internalNodes>
            0 -1 86 -2.3074180353432894e-03</internalNodes>
          <leafValues>
            -8.8506674766540527e-01 1.3008616864681244e-01</leafValues></_>
        <_>
          <internalNodes>
            0 -1 91 -5.7949228212237358e-03</internalNodes>
          <leafValues>
            3.1664744019508362e-01 -3.8038584589958191e-01</leafValues></_>
        <_>
          <internalNodes>
            0 -1 95 -6.4618643373250961e-03</internalNodes>
          <leafValues>
            -8.2999676465988159e-01 1.3591085374355316e-01</leafValues></_>
        <_>
          <internalNodes>
            0 -1 47 -7.5481354724615812e-04</internalNodes>
          <leafValues>
            3.4268572926521301e-01 -3.5674515366554260e-01</leafValues></_>
        <_>
          <internalNodes>
            0 -1 45 -2.4914955720305443e-02</internalNodes>
          <leafValues>
            -6.0797756910324097e-01 1.9546584784984589e-01</leafValues></_>
        <_>
          <internalNodes>
            0 -1 18 1.0405401699244976e-03</internalNodes>
          <leafValues>
            -2.1508820354938507e-01 6.2053352594375610e-01</leafValues></_>
        <_>
          <internalNodes>
            0 -1 37 -9.7080040723085403e-03</internalNodes>
          <leafValues>
            -6.8903732299804688e-01 2.0253640413284302e-01</leafValues></_>
        <_>
          <internalNodes>
            0 -1 32 1.2146381661295891e-02</internalNodes>
          <leafValues>
            -1.6888257861137390e-01 7.8467291593551636e-01</leafValues></_>
        <_>
          <internalNodes>
            0 -1 15 -1.0535850888118148e-03</internalNodes>
          <leafValues>
            4.9069780111312866e-01 -2.7973407506942749e-01</leafValues></_>
        <_>
          <internalNodes>
            0 -1 84 -9.3736331909894943e-03</internalNodes>
          <leafValues>
            4.8886162042617798e-01 -2.5784990191459656e-01</leafValues></_>
        <_>
          <internalNodes>
            0 -1 74 -2.6605525054037571e-03</internalNodes>
          <leafValues>
            5.6409627199172974e-01 -2.7775448560714722e-01</leafValues></_></weakClassifiers></_>
    <!-- stage 5 -->
    <_>
      <maxWeakCount>13</maxWeakCount>
      <stageThreshold>-6.6339236497879028e-01</stageThreshold>
      <weakClassifiers>
        <_>
          <internalNodes>
            0 -1 76 7.1226118598133326e-04</internalNodes>
          <leafValues>
            -4.5205479860305786e-01 2.8947368264198303e-01</leafValues></_>
        <_>
          <internalNodes>
            0 -1 14 -5.0396714359521866e-02</internalNodes>
          <leafValues>
            4.8202502727508545e-01 -2.0688809454441071e-01</leafValues></_>
        <_>
          <internalNodes>
            0 -1 46 1.0178668890148401e-03</internalNodes>
          <leafValues>
            -2.5697711110115051e-01 3.6738851666450500e-01</leafValues></_>
        <_>
          <internalNodes>
            0 -1 97 -4.0294002974405885e-04</internalNodes>
          <leafValues>
            2.6926559209823608e-01 -3.4243685007095337e-01</leafValues></_>
        <_>
          <internalNodes>
            0 -1 0 7.5999805703759193e-03</internalNodes>
          <leafValues>
            1.6301934421062469e-01 -7.9813218116760254e-01</leafValues></_>
        <_>
          <internalNodes>
            0 -1 5 6.5378285944461823e-03</internalNodes>
          <leafValues>
            -3.0186903476715088e-01 3.6007118225097656e-01</leafValues></_>
        <_>
          <internalNodes>
            0 -1 96 5.7758893817663193e-03</internalNodes>
          <leafValues>
            -3.5509991645812988e-01 3.4325262904167175e-01</leafValues></_>
        <_>
          <internalNodes>
            0 -1 10 -2.7178857475519180e-02</internalNodes>
          <leafValues>
            -8.4501957893371582e-01 9.6332617104053497e-02</leafValues></_>
        <_>
          <internalNodes>
            0 -1 35 6.2416878063231707e-04</internalNodes>
          <leafValues>
            -3.2474747300148010e-01 3.1866568326950073e-01</leafValues></_>
        <_>
          <internalNodes>
            0 -1 31 -2.9089068993926048e-03</internalNodes>
          <leafValues>
            4.5202562212944031e-01 -2.4576261639595032e-01</leafValues></_>
        <_>
          <internalNodes>
            0 -1 54 2.3936916142702103e-02</internalNodes>
          <leafValues>
            1.4641970396041870e-01 -7.1859550476074219e-01</leafValues></_>
        <_>
          <internalNodes>
            0 -1 29 -1.0311533510684967e-01</internalNodes>
          <leafValues>
            5.2536374330520630e-01 -2.4356205761432648e-01</leafValues></_>
        <_>
          <internalNodes>
            0 -1 8 1.0946184396743774e-02</internalNodes>
          <leafValues>
            -1.8771022558212280e-01 6.3160914182662964e-01</leafValues></_></weakClassifiers></_>
    <!-- stage 6 -->
    <_>
      <maxWeakCount>12</maxWeakCount>
      <stageThreshold>-1.0526573657989502e+00</stageThreshold>
      <weakClassifiers>
        <_>
          <internalNodes>
            0 -1 77 5.9408061206340790e-03</internalNodes>
          <leafValues>
            -2.7800831198692322e-01 5.0375938415527344e-01</leafValues></_>
        <_>
          <internalNodes>
            0 -1 38 -3.3400459215044975e-03</internalNodes>
          <leafValues>
            3.7132820487022400e-01 -2.7737939357757568e-01</leafValues></_>
        <_>
          <internalNodes>
            0 -1 13 -5.3013255819678307e-04</internalNodes>
          <leafValues>
            3.0012911558151245e-01 -3.1643232703208923e-01</leafValues></_>
        <_>
          <internalNodes>
            0 -1 61 3.2311440445482731e-03</internalNodes>
          <leafValues>
            -3.2315510511398315e-01 3.6438414454460144e-01</leafValues></_>
        <_>
          <internalNodes>
            0 -1 19 8.3148218691349030e-03</internalNodes>
          <leafValues>
            -2.1006390452384949e-01 4.9721091985702515e-01</leafValues></_>
        <_>
          <internalNodes>
            0 -1 94 4.8490153858438134e-04</internalNodes>
          <leafValues>
            -2.1189883351325989e-01 4.7765588760375977e-01</leafValues></_>
        <_>
          <internalNodes>
            0 -1 6 -9.5726258587092161e-04</internalNodes>
          <leafValues>
            -6.3737559318542480e-01 1.5231825411319733e-01</leafValues></_>
        <_>
          <internalNodes>
            0 -1 36 -2.3836230393499136e-03</internalNodes>
          <leafValues>
            4.3471342325210571e-01 -2.2938057780265808e-01</leafValues></_>
        <_>
          <internalNodes>
            0 -1 25 -2.4041333235800266e-03</internalNodes>
          <leafValues>
            3.9009764790534973e-01 -2.5415581464767456e-01</leafValues></_>
        <_>
          <internalNodes>
            0 -1 2 -3.4152599982917309e-03</internalNodes>
          <leafValues>
            4.6020460128784180e-01 -2.6742359995841980e-01</leafValues></_>
        <_>
          <internalNodes>
            0 -1 59 8.6461361497640610e-03</internalNodes>
          <leafValues>
            2.2227695584297180e-01 -5.5824363231658936e-01</leafValues></_>
        <_>
          <internalNodes>
            0 -1 73 -1.1725632939487696e-03</internalNodes>
          <leafValues>
            -4.4495999813079834e-01 2.3337048292160034e-01</leafValues></_></weakClassifiers></_>
    <!-- stage 7 -->
    <_>
      <maxWeakCount>14</maxWeakCount>
      <stageThreshold>-8.7019044160842896e-01</stageThreshold>
      <weakClassifiers>
        <_>
          <internalNodes>
            0 -1 92 3.1572012230753899e-03</internalNodes>
          <leafValues>
            -3.7804877758026123e-01 2.9523810744285583e-01</leafValues></_>
        <_>
          <internalNodes>
            0 -1 39 -1.4682137407362461e-04</internalNodes>
          <leafValues>
            3.2956215739250183e-01 -3.2910087704658508e-01</leafValues></_>
        <_>
          <internalNodes>
            0 -1 65 7.1699013933539391e-03</internalNodes>
          <leafValues>
            1.0915078967809677e-01 -8.1442439556121826e-01</leafValues></_>
        <_>
          <internalNodes>
            0 -1 98 -9.0884254314005375e-04</internalNodes>
          <leafValues>
            3.4372901916503906e-01 -2.7370196580886841e-01</leafValues></_>
        <_>
          <internalNodes>
            0 -1 58 4.5419065281748772e-03</internalNodes>
          <leafValues>
            -2.0537054538726807e-01 4.8635426163673401e-01</leafValues></_>
        <_>
          <internalNodes>
            0 -1 64 -1.7560692504048347e-03</internalNodes>
          <leafValues>
            3.4576806426048279e-01 -3.0781382322311401e-01</leafValues></_>
        <_>
          <internalNodes>
            0 -1 27 -1.4326712116599083e-03</internalNodes>
          <leafValues>
            2.9854840040206909e-01 -4.1314238309860229e-01</leafValues></_>
        <_>
          <internalNodes>
            0 -1 100 7.7263917773962021e-04</internalNodes>
          <leafValues>
            2.4454921483993530e-01 -4.5476543903350830e-01</leafValues></_>
        <_>
          <internalNodes>
            0 -1 23 1.5620593912899494e-03</internalNodes>
          <leafValues>
            2.0603139698505402e-01 -4.8002806305885315e-01</leafValues></_>
        <_>
          <internalNodes>
            0 -1 99 -8.3454959094524384e-03</internalNodes>
          <leafValues>
            -4.2334136366844177e-01 2.4482730031013489e-01</leafValues></_>
        <_>
          <internalNodes>
            0 -1 70 -5.6554964976385236e-04</internalNodes>
          <leafValues>
            -5.8779162168502808e-01 1.4668053388595581e-01</leafValues></_>
        <_>
          <internalNodes>
            0 -1 83 1.0265811579301953e-03</internalNodes>
          <leafValues>
            -2.2885589301586151e-01 5.3499823808670044e-01</leafValues></_>
        <_>
          <internalNodes>
            0 -1 82 -4.8237182199954987e-03</internalNodes>
          <leafValues>
            6.2298941612243652e-01 -1.9364453852176666e-01</leafValues></_>
        <_>
          <internalNodes>
            0 -1 66 4.9890205264091492e-03</internalNodes>
          <leafValues>
            -1.5093997120857239e-01 6.6675692796707153e-01</leafValues></_></weakClassifiers></_>
    <!-- stage 8 -->
    <_>
      <maxWeakCount>11</maxWeakCount>
      <stageThreshold>-5.9280490875244141e-01</stageThreshold>
      <weakClassifiers>
        <_>
          <internalNodes>
            0 -1 89 -1.0784297483041883e-03</internalNodes>
          <leafValues>
            3.1999999284744263e-01 -3.6781609058380127e-01</leafValues></_>
        <_>
          <internalNodes>
            0 -1 60 4.1320039890706539e-03</internalNodes>
          <leafValues>
            -3.1171458959579468e-01 3.1163689494132996e-01</leafValues></_>
        <_>
          <internalNodes>
            0 -1 7 -1.6669923206791282e-03</internalNodes>
          <leafValues>
            3.8669392466545105e-01 -2.3664255440235138e-01</leafValues></_>
        <_>
          <internalNodes>
            0 -1 12 -1.7930986359715462e-03</internalNodes>
          <leafValues>
            4.1367724537849426e-01 -2.0518526434898376e-01</leafValues></_>
        <_>
          <internalNodes>
            0 -1 40 -7.9201953485608101e-03</internalNodes>
          <leafValues>
            -6.1967664957046509e-01 1.4781521260738373e-01</leafValues></_>
        <_>
          <internalNodes>
            0 -1 51 1.4720043167471886e-02</internalNodes>
          <leafValues>
            1.6828142106533051e-01 -6.2896257638931274e-01</leafValues></_>
        <_>
          <internalNodes>
            0 -1 42 -5.1978426054120064e-03</internalNodes>
          <leafValues>
            5.8548337221145630e-01 -2.2436603903770447e-01</leafValues></_>
        <_>
          <internalNodes>
            0 -1 101 1.5154391294345260e-03</internalNodes>
          <leafValues>
            1.8365105986595154e-01 -7.2109770774841309e-01</leafValues></_>
        <_>
          <internalNodes>
            0 -1 55 2.5727457832545042e-03</internalNodes>
          <leafValues>
            -2.0650780200958252e-01 4.9148011207580566e-01</leafValues></_>
        <_>
          <internalNodes>
            0 -1 62 -9.0044445823878050e-04</internalNodes>
          <leafValues>
            -4.8363575339317322e-01 1.9292214512825012e-01</leafValues></_>
        <_>
          <internalNodes>
            0 -1 69 -1.4636468142271042e-02</internalNodes>
          <leafValues>
            3.3532530069351196e-01 -2.6169455051422119e-01</leafValues></_></weakClassifiers></_>
    <!-- stage 9 -->
    <_>
      <maxWeakCount>12</maxWeakCount>
      <stageThreshold>-6.9829022884368896e-01</stageThreshold>
      <weakClassifiers>
        <_>
          <internalNodes>
            0 -1 1 -5.0980472005903721e-03</internalNodes>
          <leafValues>
            5.9036141633987427e-01 -1.6838487982749939e-01</leafValues></_>
        <_>
          <internalNodes>
            0 -1 88 -4.2404676787555218e-03</internalNodes>
          <leafValues>
            -7.3360878229141235e-01 1.3123647868633270e-01</leafValues></_>
        <_>
          <internalNodes>
            0 -1 49 -2.9135635122656822e-03</internalNodes>
          <leafValues>
            6.7631602287292480e-01 -1.1792923510074615e-01</leafValues></_>
        <_>
          <internalNodes>
            0 -1 52 -1.8842052668333054e-03</internalNodes>
          <leafValues>
            5.7524919509887695e-01 -1.7865483462810516e-01</leafValues></_>
        <_>
          <internalNodes>
            0 -1 24 -3.9198477752506733e-03</internalNodes>
          <leafValues>
            -8.9627587795257568e-01 1.0653948783874512e-01</leafValues></_>
        <_>
          <internalNodes>
            0 -1 63 -1.1519014369696379e-03</internalNodes>
          <leafValues>
            2.9988422989845276e-01 -3.1816929578781128e-01</leafValues></_>
        <_>
          <internalNodes>
            0 -1 71 -6.5558915957808495e-04</internalNodes>
          <leafValues>
            3.8882339000701904e-01 -2.3290771245956421e-01</leafValues></_>
        <_>
          <internalNodes>
            0 -1 41 7.4542583897709846e-03</internalNodes>
          <leafValues>
            -1.3908939063549042e-01 7.1790313720703125e-01</leafValues></_>
        <_>
          <internalNodes>
            0 -1 41 -6.6435830667614937e-03</internalNodes>
          <leafValues>
            6.4463829994201660e-01 -1.2380069494247437e-01</leafValues></_>
        <_>
          <internalNodes>
            0 -1 44 -7.8340474283322692e-04</internalNodes>
          <leafValues>
            3.3167675137519836e-01 -3.0420422554016113e-01</leafValues></_>
        <_>
          <internalNodes>
            0 -1 9 1.6667790710926056e-02</internalNodes>
          <leafValues>
            -3.0095663666725159e-01 3.8983336091041565e-01</leafValues></_>
        <_>
          <internalNodes>
            0 -1 90 1.3031931594014168e-03</internalNodes>
          <leafValues>
            -2.9175394773483276e-01 3.6081749200820923e-01</leafValues></_></weakClassifiers></_></stages>
  <features>
    <_>
      <rects>
        <_>
          0 5 7 3 -1.</_>
        <_>
          0 6 7 1 3.</_></rects>
      <tilted>0</tilted></_>
    <_>
      <rects>
        <_>
          0 8 3 2 -1.</_>
        <_>
          1 8 1 2 3.</_></rects>
      <tilted>0</tilted></_>
    <_>
      <rects>
        <_>
          0 9 8 3 -1.</_>
        <_>
          0 10 8 1 3.</_></rects>
      <tilted>0</tilted></_>
    <_>
      <rects>
        <_>
          1 3 2 7 -1.</_>
        <_>
          2 3 1 7 2.</_></rects>
      <tilted>0</tilted></_>
    <_>
      <rects>
        <_>
          1 3 2 11 -1.</_>
        <_>
          2 3 1 11 2.</_></rects>
      <tilted>0</tilted></_>
    <_>
      <rects>
        <_>
          1 3 4 16 -1.</_>
        <_>
          1 3 2 8 2.</_>
        <_>
          3 11 2 8 2.</_></rects>
      <tilted>0</tilted></_>
    <_>
      <rects>
        <_>
          1 7 1 2 -1.</_>
        <_>
          1 8 1 1 2.</_></rects>
      <tilted>0</tilted></_>
    <_>
      <rects>
        <_>
          1 11 4 2 -1.</_>
        <_>
          1 12 4 1 2.</_></rects>
      <tilted>0</tilted></_>
    <_>
      <rects>
        <_>
          1 11 19 6 -1.</_>
        <_>
          1 14 19 3 2.</_></rects>
      <tilted>0</tilted></_>
    <_>
      <rects>
        <_>
          2 4 4 16 -1.</_>
        <_>
          2 4 2 8 2.</_>
        <_>
          4 12 2 8 2.</_></rects>
      <tilted>0</tilted></_>
    <_>
      <rects>
        <_>
          2 5 15 4 -1.</_>
        <_>
          2 7 15 2 2.</_></rects>
      <tilted>0</tilted></_>
    <_>
      <rects>
        <_>
          2 6 2 3 -1.</_>
        <_>
          3 6 1 3 2.</_></rects>
      <tilted>0</tilted></_>
    <_>
      <rects>
        <_>
          2 7 2 1 -1.</_>
        <_>
          3 7 1 1 2.</_></rects>
      <tilted>0</tilted></_>
    <_>
      <rects>
        <_>
          2 7 1 4 -1.</_>
        <_>
          2 9 1 2 2.</_></rects>
      <tilted>0</tilted></_>
    <_>
      <rects>
        <_>
          2 7 5 10 -1.</_>
        <_>
          2 12 5 5 2.</_></rects>
      <tilted>0</tilted></_>
    <_>
      <rects>
        <_>
          2 8 2 1 -1.</_>
        <_>
          3 8 1 1 2.</_></rects>
      <tilted>0</tilted></_>
    <_>
      <rects>
        <_>
          2 8 1 6 -1.</_>
        <_>
          2 10 1 2 3.</_></rects>
      <tilted>0</tilted></_>
    <_>
      <rects>
        <_>
          2 8 16 12 -1.</_>
        <_>
          10 8 8 12 2.</_></rects>
      <tilted>0</tilted></_>
    <_>
      <rects>
        <_>
          2 11 2 1 -1.</_>
        <_>
          3 11 1 1 2.</_></rects>
      <tilted>0</tilted></_>
    <_>
      <rects>
        <_>
          3 2 12 1 -1.</_>
        <_>
          7 2 4 1 3.</_></rects>
      <tilted>0</tilted></_>
    <_>
      <rects>
        <_>
          3 4 2 6 -1.</_>
        <_>
          3 4 1 3 2.</_>
        <_>
          4 7 1 3 2.</_></rects>
      <tilted>0</tilted></_>
    <_>
      <rects>
        <_>
          3 6 2 5 -1.</_>
        <_>
          4 6 1 5 2.</_></rects>
      <tilted>0</tilted></_>
    <_>
      <rects>
        <_>
          3 6 3 5 -1.</_>
        <_>
          4 6 1 5 3.</_></rects>
      <tilted>0</tilted></_>
    <_>
      <rects>
        <_>
          3 6 3 3 -1.</_>
        <_>
          3 7 3 1 3.</_></rects>
      <tilted>0</tilted></_>
    <_>
      <rects>
        <_>
          3 7 2 1 -1.</_>
        <_>
          4 7 1 1 2.</_></rects>
      <tilted>0</tilted></_>
    <_>
      <rects>
        <_>
          3 7 2 2 -1.</_>
        <_>
          4 7 1 2 2.</_></rects>
      <tilted>0</tilted></_>
    <_>
      <rects>
        <_>
          3 7 2 3 -1.</_>
        <_>
          4 7 1 3 2.</_></rects>
      <tilted>0</tilted></_>
    <_>
      <rects>
        <_>
          3 7 3 5 -1.</_>
        <_>
          4 7 1 5 3.</_></rects>
      <tilted>0</tilted></_>
    <_>
      <rects>
        <_>
          3 7 6 12 -1.</_>
        <_>
          3 7 3 6 2.</_>
        <_>
          6 13 3 6 2.</_></rects>
      <tilted>0</tilted></_>
    <_>
      <rects>
        <_>
          3 9 14 8 -1.</_>
        <_>
          3 13 14 4 2.</_></rects>
      <tilted>0</tilted></_>
    <_>
      <rects>
        <_>
          3 10 2 2 -1.</_>
        <_>
          4 10 1 2 2.</_></rects>
      <tilted>0</tilted></_>
    <_>
      <rects>
        <_>
          3 10 8 3 -1.</_>
        <_>
          3 11 8 1 3.</_></rects>
      <tilted>0</tilted></_>
    <_>
      <rects>
        <_>
          4 1 3 4 -1.</_>
        <_>
          4 3 3 2 2.</_></rects>
      <tilted>0</tilted></_>
    <_>
      <rects>
        <_>
          4 4 3 2 -1.</_>
        <_>
          5 4 1 2 3.</_></rects>
      <tilted>0</tilted></_>
    <_>
      <rects>
        <_>
          4 4 8 6 -1.</_>
        <_>
          4 6 8 2 3.</_></rects>
      <tilted>0</tilted></_>
    <_>
      <rects>
        <_>
          4 6 2 4 -1.</_>
        <_>
          4 6 1 2 2.</_>
        <_>
          5 8 1 2 2.</_></rects>
      <tilted>0</tilted></_>
    <_>
      <rects>
        <_>
          4 6 2 4 -1.</_>
        <_>
          4 8 2 2 2.</_></rects>
      <tilted>0</tilted></_>
    <_>
      <rects>
        <_>
          4 7 14 5 -1.</_>
        <_>
          11 7 7 5 2.</_></rects>
      <tilted>0</tilted></_>
    <_>
      <rects>
        <_>
          4 9 1 8 -1.</_>
        <_>
          4 13 1 4 2.</_></rects>
      <tilted>0</tilted></_>
    <_>
      <rects>
        <_>
          4 11 3 1 -1.</_>
        <_>
          5 11 1 1 3.</_></rects>
      <tilted>0</tilted></_>
    <_>
      <rects>
        <_>
          4 12 11 3 -1.</_>
        <_>
          4 13 11 1 3.</_></rects>
      <tilted>0</tilted></_>
    <_>
      <rects>
        <_>
          5 3 3 4 -1.</_>
        <_>
          6 3 1 4 3.</_></rects>
      <tilted>0</tilted></_>
    <_>
      <rects>
        <_>
          5 4 3 2 -1.</_>
        <_>
          6 4 1 2 3.</_></rects>
      <tilted>0</tilted></_>
    <_>
      <rects>
        <_>
          5 8 1 6 -1.</_>
        <_>
          5 11 1 3 2.</_></rects>
      <tilted>0</tilted></_>
    <_>
      <rects>
        <_>
          5 9 1 4 -1.</_>
        <_>
          5 11 1 2 2.</_></rects>
      <tilted>0</tilted></_>
    <_>
      <rects>
        <_>
          6 2 5 15 -1.</_>
        <_>
          6 7 5 5 3.</_></rects>
      <tilted>0</tilted></_>
    <_>
      <rects>
        <_>
          6 2 14 3 -1.</_>
        <_>
          6 3 14 1 3.</_></rects>
      <tilted>0</tilted></_>
    <_>
      <rects>
        <_>
          6 3 2 4 -1.</_>
        <_>
          6 5 2 2 2.</_></rects>
      <tilted>0</tilted></_>
    <_>
      <rects>
        <_>
          6 6 9 9 -1.</_>
        <_>
          6 9 9 3 3.</_></rects>
      <tilted>0</tilted></_>
    <_>
      <rects>
        <_>
          6 8 2 3 -1.</_>
        <_>
          6 9 2 1 3.</_></rects>
      <tilted>0</tilted></_>
    <_>
      <rects>
        <_>
          6 8 9 12 -1.</_>
        <_>
          6 14 9 6 2.</_></rects>
      <tilted>0</tilted></_>
    <_>
      <rects>
        <_>
          7 2 3 13 -1.</_>
        <_>
          8 2 1 13 3.</_></rects>
      <tilted>0</tilted></_>
    <_>
      <rects>
        <_>
          7 9 1 3 -1.</_>
        <_>
          7 10 1 1 3.</_></rects>
      <tilted>0</tilted></_>
    <_>
      <rects>
        <_>
          7 9 3 2 -1.</_>
        <_>
          7 10 3 1 2.</_></rects>
      <tilted>0</tilted></_>
    <_>
      <rects>
        <_>
          8 1 1 15 -1.</_>
        <_>
          8 6 1 5 3.</_></rects>
      <tilted>0</tilted></_>
    <_>
      <rects>
        <_>
          8 10 2 10 -1.</_>
        <_>
          8 10 1 5 2.</_>
        <_>
          9 15 1 5 2.</_></rects>
      <tilted>0</tilted></_>
    <_>
      <rects>
        <_>
          8 17 3 3 -1.</_>
        <_>
          8 18 3 1 3.</_></rects>
      <tilted>0</tilted></_>
    <_>
      <rects>
        <_>
          9 7 1 3 -1.</_>
        <_>
          9 8 1 1 3.</_></rects>
      <tilted>0</tilted></_>
    <_>
      <rects>
        <_>
          9 9 4 4 -1.</_>
        <_>
          9 9 2 2 2.</_>
        <_>
          11 11 2 2 2.</_></rects>
      <tilted>0</tilted></_>
    <_>
      <rects>
        <_>
          10 2 3 9 -1.</_>
        <_>
          11 2 1 9 3.</_></rects>
      <tilted>0</tilted></_>
    <_>
      <rects>
        <_>
          10 7 2 6 -1.</_>
        <_>
          10 9 2 2 3.</_></rects>
      <tilted>0</tilted></_>
    <_>
      <rects>
        <_>
          10 7 3 4 -1.</_>
        <_>
          10 9 3 2 2.</_></rects>
      <tilted>0</tilted></_>
    <_>
      <rects>
        <_>
          10 17 2 2 -1.</_>
        <_>
          10 18 2 1 2.</_></rects>
      <tilted>0</tilted></_>
    <_>
      <rects>
        <_>
          11 8 8 2 -1.</_>
        <_>
          11 8 4 1 2.</_>
        <_>
          15 9 4 1 2.</_></rects>
      <tilted>0</tilted></_>
    <_>
      <rects>
        <_>
          11 9 1 4 -1.</_>
        <_>
          11 11 1 2 2.</_></rects>
      <tilted>0</tilted></_>
    <_>
      <rects>
        <_>
          11 11 5 3 -1.</_>
        <_>
          11 12 5 1 3.</_></rects>
      <tilted>0</tilted></_>
    <_>
      <rects>
        <_>
          11 12 2 3 -1.</_>
        <_>
          12 12 1 3 2.</_></rects>
      <tilted>0</tilted></_>
    <_>
      <rects>
        <_>
          12 6 3 2 -1.</_>
        <_>
          13 6 1 2 3.</_></rects>
      <tilted>0</tilted></_>
    <_>
      <rects>
        <_>
          12 6 4 4 -1.</_>
        <_>
          12 6 2 2 2.</_>
        <_>
          14 8 2 2 2.</_></rects>
      <tilted>0</tilted></_>
    <_>
      <rects>
        <_>
          12 7 4 8 -1.</_>
        <_>
          12 7 2 4 2.</_>
        <_>
          14 11 2 4 2.</_></rects>
      <tilted>0</tilted></_>
    <_>
      <rects>
        <_>
          12 8 2 1 -1.</_>
        <_>
          13 8 1 1 2.</_></rects>
      <tilted>0</tilted></_>
    <_>
      <rects>
        <_>
          12 8 2 2 -1.</_>
        <_>
          12 8 1 1 2.</_>
        <_>
          13 9 1 1 2.</_></rects>
      <tilted>0</tilted></_>
    <_>
      <rects>
        <_>
          12 8 6 2 -1.</_>
        <_>
          14 8 2 2 3.</_></rects>
      <tilted>0</tilted></_>
    <_>
      <rects>
        <_>
          12 16 6 3 -1.</_>
        <_>
          12 17 6 1 3.</_></rects>
      <tilted>0</tilted></_>
    <_>
      <rects>
        <_>
          13 6 1 4 -1.</_>
        <_>
          13 8 1 2 2.</_></rects>
      <tilted>0</tilted></_>
    <_>
      <rects>
        <_>
          13 6 2 4 -1.</_>
        <_>
          13 6 1 2 2.</_>
        <_>
          14 8 1 2 2.</_></rects>
      <tilted>0</tilted></_>
    <_>
      <rects>
        <_>
          13 9 2 1 -1.</_>
        <_>
          14 9 1 1 2.</_></rects>
      <tilted>0</tilted></_>
    <_>
      <rects>
        <_>
          13 9 2 3 -1.</_>
        <_>
          14 9 1 3 2.</_></rects>
      <tilted>0</tilted></_>
    <_>
      <rects>
        <_>
          14 1 2 10 -1.</_>
        <_>
          14 6 2 5 2.</_></rects>
      <tilted>0</tilted></_>
    <_>
      <rects>
        <_>
          14 1 2 18 -1.</_>
        <_>
          14 7 2 6 3.</_></rects>
      <tilted>0</tilted></_>
    <_>
      <rects>
        <_>
          14 2 2 15 -1.</_>
        <_>
          14 7 2 5 3.</_></rects>
      <tilted>0</tilted></_>
    <_>
      <rects>
        <_>
          14 5 2 6 -1.</_>
        <_>
          14 7 2 2 3.</_></rects>
      <tilted>0</tilted></_>
    <_>
      <rects>
        <_>
          14 6 1 6 -1.</_>
        <_>
          14 9 1 3 2.</_></rects>
      <tilted>0</tilted></_>
    <_>
      <rects>
        <_>
          14 8 2 1 -1.</_>
        <_>
          15 8 1 1 2.</_></rects>
      <tilted>0</tilted></_>
    <_>
      <rects>
        <_>
          14 9 6 1 -1.</_>
        <_>
          17 9 3 1 2.</_></rects>
      <tilted>0</tilted></_>
    <_>
      <rects>
        <_>
          14 10 1 2 -1.</_>
        <_>
          14 11 1 1 2.</_></rects>
      <tilted>0</tilted></_>
    <_>
      <rects>
        <_>
          14 10 2 2 -1.</_>
        <_>
          14 10 1 1 2.</_>
        <_>
          15 11 1 1 2.</_></rects>
      <tilted>0</tilted></_>
    <_>
      <rects>
        <_>
          14 10 2 4 -1.</_>
        <_>
          14 12 2 2 2.</_></rects>
      <tilted>0</tilted></_>
    <_>
      <rects>
        <_>
          14 11 3 3 -1.</_>
        <_>
          14 12 3 1 3.</_></rects>
      <tilted>0</tilted></_>
    <_>
      <rects>
        <_>
          14 12 2 2 -1.</_>
        <_>
          14 13 2 1 2.</_></rects>
      <tilted>0</tilted></_>
    <_>
      <rects>
        <_>
          14 13 4 2 -1.</_>
        <_>
          14 13 2 1 2.</_>
        <_>
          16 14 2 1 2.</_></rects>
      <tilted>0</tilted></_>
    <_>
      <rects>
        <_>
          15 2 2 12 -1.</_>
        <_>
          16 2 1 12 2.</_></rects>
      <tilted>0</tilted></_>
    <_>
      <rects>
        <_>
          15 6 1 6 -1.</_>
        <_>
          15 8 1 2 3.</_></rects>
      <tilted>0</tilted></_>
    <_>
      <rects>
        <_>
          15 8 2 1 -1.</_>
        <_>
          16 8 1 1 2.</_></rects>
      <tilted>0</tilted></_>
    <_>
      <rects>
        <_>
          15 8 2 2 -1.</_>
        <_>
          15 8 1 1 2.</_>
        <_>
          16 9 1 1 2.</_></rects>
      <tilted>0</tilted></_>
    <_>
      <rects>
        <_>
          15 8 1 4 -1.</_>
        <_>
          15 10 1 2 2.</_></rects>
      <tilted>0</tilted></_>
    <_>
      <rects>
        <_>
          15 8 2 12 -1.</_>
        <_>
          15 8 1 6 2.</_>
        <_>
          16 14 1 6 2.</_></rects>
      <tilted>0</tilted></_>
    <_>
      <rects>
        <_>
          15 9 1 2 -1.</_>
        <_>
          15 10 1 1 2.</_></rects>
      <tilted>0</tilted></_>
    <_>
      <rects>
        <_>
          15 12 1 2 -1.</_>
        <_>
          15 13 1 1 2.</_></rects>
      <tilted>0</tilted></_>
    <_>
      <rects>
        <_>
          16 6 2 8 -1.</_>
        <_>
          16 10 2 4 2.</_></rects>
      <tilted>0</tilted></_>
    <_>
      <rects>
        <_>
          16 16 2 3 -1.</_>
        <_>
          17 16 1 3 2.</_></rects>
      <tilted>0</tilted></_>
    <_>
      <rects>
        <_>
          18 19 2 1 -1.</_>
        <_>
          19 19 1 1 2.</_></rects>
      <tilted>0</tilted></_></features></cascade>
</opencv_storage>
